digraph Tree {
node [shape=box, style="filled", color="black"] ;
0 [label="total_seconds <= 11.5\ngini = 0.49\nsamples = 100.0%\nvalue = [0.56, 0.44]\nclass = closed:  Volt value increasing", fillcolor="#f9e4d5"] ;
1 [label="time <= 44.5\n0.24\n31.2%\n[0.14, 0.86]\nopened: Volt value decreasing", fillcolor="#5aade9"] ;
0 -> 1 [labeldistance=2.5, labelangle=45, headlabel="True"] ;
2 [label="0.0\n25.0%\n[0.0, 1.0]\nopened: Volt value decreasing", fillcolor="#399de5"] ;
1 -> 2 ;
3 [label="0.0\n6.2%\n[1.0, 0.0]\nclosed:  Volt value increasing", fillcolor="#e58139"] ;
1 -> 3 ;
4 [label="time <= 3.5\n0.4\n68.8%\n[0.72, 0.28]\nclosed:  Volt value increasing", fillcolor="#efb185"] ;
0 -> 4 [labeldistance=2.5, labelangle=-45, headlabel="False"] ;
5 [label="0.0\n6.2%\n[0.0, 1.0]\nopened: Volt value decreasing", fillcolor="#399de5"] ;
4 -> 5 ;
6 [label="volt <= 270.5\n0.3\n62.5%\n[0.81, 0.19]\nclosed:  Volt value increasing", fillcolor="#eb9e67"] ;
4 -> 6 ;
7 [label="total_seconds <= 31.5\n0.5\n12.5%\n[0.5, 0.5]\nclosed:  Volt value increasing", fillcolor="#ffffff"] ;
6 -> 7 ;
8 [label="0.0\n6.2%\n[1.0, 0.0]\nclosed:  Volt value increasing", fillcolor="#e58139"] ;
7 -> 8 ;
9 [label="0.0\n6.2%\n[0.0, 1.0]\nopened: Volt value decreasing", fillcolor="#399de5"] ;
7 -> 9 ;
10 [label="volt <= 575.5\n0.15\n50.0%\n[0.92, 0.08]\nclosed:  Volt value increasing", fillcolor="#e78c4b"] ;
6 -> 10 ;
11 [label="0.0\n37.5%\n[1.0, 0.0]\nclosed:  Volt value increasing", fillcolor="#e58139"] ;
10 -> 11 ;
12 [label="time <= 32.5\n0.5\n12.5%\n[0.5, 0.5]\nclosed:  Volt value increasing", fillcolor="#ffffff"] ;
10 -> 12 ;
13 [label="0.0\n6.2%\n[1.0, 0.0]\nclosed:  Volt value increasing", fillcolor="#e58139"] ;
12 -> 13 ;
14 [label="0.0\n6.2%\n[0.0, 1.0]\nopened: Volt value decreasing", fillcolor="#399de5"] ;
12 -> 14 ;
}